svm_type c_svc
kernel_type linear
nr_class 2
total_sv 7
rho -0.999765
label 1 -1
nr_sv 2 5
SV
0.575224762206565 1:86 2:-43 
1.924363450363749 1:-100 2:50 
-1.924363450363749 1:-100 2:49 
-0.01645067877755918 1:28 2:-15 
-0.01136923330417321 1:82 2:-42 
-1.288133605894119e-06 1:-84 2:41 
-0.5474035619912266 1:86 2:-44 
