svm_type c_svc
kernel_type rbf
gamma 0
nr_class 2
total_sv 176
rho -1
label 1 -1
nr_sv 88 88
SV
1 0:105 1:13 
1 0:105 1:16 
1 0:105 1:17 
1 0:105 1:38 
1 0:106 1:12 
1 0:106 1:15 
1 0:106 1:16 
1 0:106 1:37 
1 0:107 1:11 
1 0:107 1:14 
1 0:107 1:15 
1 0:107 1:36 
1 0:108 1:10 
1 0:108 1:13 
1 0:108 1:14 
1 0:108 1:35 
1 0:109 1:9 
1 0:109 1:12 
1 0:109 1:13 
1 0:109 1:34 
1 0:110 1:8 
1 0:110 1:11 
1 0:110 1:12 
1 0:110 1:33 
1 0:111 1:7 
1 0:111 1:10 
1 0:111 1:11 
1 0:111 1:32 
1 0:112 1:6 
1 0:112 1:9 
1 0:112 1:10 
1 0:112 1:31 
1 0:113 1:5 
1 0:113 1:8 
1 0:113 1:9 
1 0:113 1:30 
1 0:114 1:4 
1 0:114 1:7 
1 0:114 1:8 
1 0:114 1:29 
1 0:115 1:3 
1 0:115 1:6 
1 0:115 1:7 
1 0:115 1:28 
1 0:116 1:2 
1 0:116 1:5 
1 0:116 1:6 
1 0:116 1:27 
1 0:117 1:1 
1 0:117 1:4 
1 0:117 1:5 
1 0:117 1:26 
1 0:118 1:0 
1 0:118 1:3 
1 0:118 1:4 
1 0:118 1:25 
1 0:119 1:2 
1 0:119 1:3 
1 0:119 1:24 
1 0:120 1:1 
1 0:120 1:2 
1 0:120 1:23 
1 0:121 1:0 
1 0:121 1:1 
1 0:121 1:22 
1 0:122 1:0 
1 0:122 1:21 
1 0:123 1:20 
1 0:124 1:19 
1 0:125 1:18 
1 0:126 1:17 
1 0:127 1:16 
1 0:128 1:15 
1 0:129 1:14 
1 0:130 1:13 
1 0:131 1:12 
1 0:132 1:11 
1 0:133 1:10 
1 0:134 1:9 
1 0:135 1:8 
1 0:136 1:7 
1 0:137 1:6 
1 0:138 1:5 
1 0:139 1:4 
1 0:140 1:3 
1 0:141 1:2 
1 0:142 1:1 
1 0:143 1:0 
-1 0:-79 1:-46 
-1 0:-79 1:42 
-1 0:-78 1:41 
-1 0:-77 1:40 
-1 0:-76 1:39 
-1 0:-75 1:38 
-1 0:-74 1:37 
-1 0:-73 1:36 
-1 0:-72 1:35 
-1 0:-71 1:34 
-1 0:-70 1:33 
-1 0:-69 1:32 
-1 0:-68 1:31 
-1 0:-67 1:30 
-1 0:-66 1:29 
-1 0:-65 1:28 
-1 0:-64 1:27 
-1 0:-63 1:26 
-1 0:-62 1:25 
-1 0:-61 1:24 
-1 0:-60 1:23 
-1 0:-59 1:22 
-1 0:-58 1:21 
-1 0:-57 1:20 
-1 0:-56 1:19 
-1 0:-55 1:18 
-1 0:-54 1:17 
-1 0:-53 1:16 
-1 0:-52 1:15 
-1 0:-51 1:14 
-1 0:-50 1:13 
-1 0:-49 1:12 
-1 0:-48 1:11 
-1 0:-47 1:10 
-1 0:-46 1:9 
-1 0:-45 1:8 
-1 0:-44 1:7 
-1 0:-43 1:-27 
-1 0:-43 1:6 
-1 0:-43 1:42 
-1 0:-42 1:5 
-1 0:-42 1:41 
-1 0:-41 1:4 
-1 0:-41 1:40 
-1 0:-40 1:3 
-1 0:-40 1:39 
-1 0:-39 1:2 
-1 0:-39 1:38 
-1 0:-38 1:1 
-1 0:-38 1:37 
-1 0:-37 1:0 
-1 0:-37 1:36 
-1 0:-36 1:35 
-1 0:-35 1:34 
-1 0:-34 1:33 
-1 0:-33 1:32 
-1 0:-32 1:31 
-1 0:-31 1:30 
-1 0:-30 1:29 
-1 0:-29 1:28 
-1 0:-28 1:27 
-1 0:-27 1:26 
-1 0:-26 1:25 
-1 0:-25 1:24 
-1 0:-24 1:23 
-1 0:-23 1:22 
-1 0:-22 1:21 
-1 0:-21 1:20 
-1 0:-20 1:19 
-1 0:-19 1:18 
-1 0:-18 1:17 
-1 0:-17 1:16 
-1 0:-16 1:15 
-1 0:-15 1:14 
-1 0:-14 1:13 
-1 0:-13 1:12 
-1 0:-12 1:11 
-1 0:-11 1:10 
-1 0:-10 1:9 
-1 0:-9 1:8 
-1 0:-8 1:7 
-1 0:-7 1:6 
-1 0:-6 1:5 
-1 0:-5 1:4 
-1 0:-4 1:3 
-1 0:-3 1:2 
-1 0:-2 1:1 
-1 0:-1 1:0 
