svm_type c_svc
kernel_type linear
nr_class 2
total_sv 5
rho -0.999227
label 1 -1
nr_sv 1 4
SV
2.498792455561665 1:-34 2:17 
-0.01852087071931018 1:64 2:-33 
-2.148276263064334 1:-38 2:18 
-0.006665965587027175 1:52 2:-27 
-0.3253293561909923 1:-18 2:8 
