svm_type c_svc
kernel_type rbf
gamma 0.5
nr_class 2
total_sv 582
rho -0.526555
label 1 -1
nr_sv 447 135
SV
0.3863094043251835 1:25 2:99 
0.2221684426519875 1:26 2:98 
0.2837615851973381 1:27 2:97 
0.2607706465505436 1:28 2:96 
0.2697323610788155 1:29 2:95 
0.2658782447567657 1:30 2:94 
0.2680540490112996 1:31 2:93 
0.2665604184156097 1:32 2:92 
0.2676776199165303 1:33 2:91 
0.2664887252746579 1:34 2:90 
0.2671622210728072 1:35 2:89 
0.267468465271444 1:36 2:88 
0.266713187789836 1:37 2:87 
0.2677845900618396 1:38 2:86 
0.2664618293749719 1:39 2:85 
0.267524132412144 1:40 2:84 
0.2664658685535759 1:41 2:83 
0.2676895090265862 1:42 2:82 
0.2674578304634462 1:43 2:81 
0.2663731296900537 1:44 2:80 
0.2677655614365612 1:45 2:79 
0.2665595888779075 1:46 2:78 
0.2679141824010114 1:47 2:77 
0.2664692498922575 1:48 2:76 
0.2680047875064305 1:49 2:75 
0.2664478086735236 1:50 2:74 
0.2674661729139078 1:51 2:73 
0.2665567115632754 1:52 2:72 
0.267686317703652 1:53 2:71 
0.2664914986447043 1:54 2:70 
0.267531287924513 1:55 2:69 
0.267518083918409 1:56 2:68 
0.2666828700041634 1:57 2:67 
0.2668895551480756 1:58 2:66 
0.2681123649757446 1:59 2:65 
0.2657787931203479 1:60 2:64 
0.2684976181588993 1:61 2:63 
0.2658481977936285 1:62 2:62 
0.2678423169870242 1:63 2:61 
0.2665523664519316 1:64 2:60 
0.2673145860102686 1:65 2:59 
0.26663604150291 1:66 2:58 
0.2672501125557232 1:67 2:57 
0.2670072152795225 1:68 2:56 
0.2668922272246909 1:69 2:55 
0.2676975078673642 1:70 2:54 
0.2662927438037563 1:71 2:53 
0.2674238428955594 1:72 2:52 
0.26694460676528 1:73 2:51 
0.2667119134658161 1:74 2:50 
0.2675904326549035 1:75 2:49 
0.2667589145688441 1:76 2:48 
0.267300927714998 1:77 2:47 
0.2665569267596861 1:78 2:46 
0.2677376233899633 1:79 2:45 
0.2669343137254406 1:80 2:44 
0.2668036261305575 1:81 2:43 
0.2677945994699618 1:82 2:42 
0.2664811086385683 1:83 2:41 
0.2675079540436346 1:84 2:40 
0.2664548932484166 1:85 2:39 
0.2679168553150665 1:86 2:38 
0.2665440783125862 1:87 2:37 
0.2670791188528688 1:88 2:36 
0.2675258025945932 1:89 2:35 
0.2665163157947475 1:90 2:34 
0.2676904772167699 1:91 2:33 
0.266679660984031 1:92 2:32 
0.2676955371555739 1:93 2:31 
0.2666371870622365 1:94 2:30 
0.2668377878397248 1:95 2:29 
0.2675343720692038 1:96 2:28 
0.2666949920472691 1:97 2:27 
0.2677566692331146 1:98 2:26 
0.2662787063531525 1:99 2:25 
0.2677490035052785 1:100 2:24 
0.2671076961031083 1:101 2:23 
0.2668592448880499 1:102 2:22 
0.2674380649260502 1:103 2:21 
0.2668078549281899 1:104 2:20 
0.2673505886602172 1:105 2:19 
0.2664311555903958 1:106 2:18 
0.2673495198781455 1:107 2:17 
0.2670010337441092 1:108 2:16 
0.2666439312078174 1:109 2:15 
0.2677098075984514 1:110 2:14 
0.2663535576635735 1:111 2:13 
0.2679594881569897 1:112 2:12 
0.2666341915128856 1:113 2:11 
0.2675298544311404 1:114 2:10 
0.2669582791121862 1:115 2:9 
0.2668821022192893 1:116 2:8 
0.26759784587453 1:117 2:7 
0.2665966895918624 1:118 2:6 
0.2670469300913632 1:119 2:5 
0.2688987885319818 1:120 2:4 
0.2615586710908155 1:121 2:3 
0.2835144593237325 1:122 2:2 
0.2221284269794886 1:123 2:1 
0.3865142918874751 1:124 2:0 
0.2821772390218747 1:29 2:38 
0.1632027820096797 1:30 2:37 
0.206612492375913 1:31 2:36 
0.1916571387202697 1:32 2:35 
0.1962314639140699 1:33 2:34 
0.1954430448402913 1:34 2:33 
0.1954995104358617 1:35 2:32 
0.1945201475897777 1:36 2:31 
0.1964165394242006 1:37 2:30 
0.1942962191772339 1:38 2:29 
0.19590350903746 1:39 2:28 
0.1948774572481143 1:40 2:27 
0.1951811954221429 1:41 2:26 
0.1956509754541377 1:42 2:25 
0.1945919882415315 1:43 2:24 
0.1963473085480768 1:44 2:23 
0.1944008432412619 1:45 2:22 
0.1963583159521958 1:46 2:21 
0.1945596681422289 1:47 2:20 
0.1952916407456465 1:48 2:19 
0.1955634290855046 1:49 2:18 
0.1943861102995344 1:50 2:17 
0.1963059809588622 1:51 2:16 
0.1941530096576591 1:52 2:15 
0.1960685594041973 1:53 2:14 
0.1941359973812913 1:54 2:13 
0.1955473108152759 1:55 2:12 
0.1958717027684118 1:56 2:11 
0.194500826640821 1:57 2:10 
0.1964606198982631 1:58 2:9 
0.193893710103151 1:59 2:8 
0.1965500885603478 1:60 2:7 
0.1945014914920038 1:61 2:6 
0.1950974973359794 1:62 2:5 
0.1970098536546446 1:63 2:4 
0.1902806869339678 1:64 2:3 
0.2079108470390329 1:65 2:2 
0.1615580695274876 1:66 2:1 
0.2829606526426436 1:67 2:0 
0.3862603949746334 1:82 2:66 
0.2224158376885574 1:83 2:65 
0.2833408953765392 1:84 2:64 
0.2616000279209501 1:85 2:63 
0.2685649483703426 1:86 2:62 
0.2668324210180795 1:87 2:61 
0.2670790187651533 1:88 2:60 
0.2672957525146752 1:89 2:59 
0.2671134435255337 1:90 2:58 
0.2668619753123166 1:91 2:57 
0.2675262411962994 1:92 2:56 
0.2667133618376539 1:93 2:55 
0.2676625663930181 1:94 2:54 
0.2671153254766766 1:95 2:53 
0.2667156347078108 1:96 2:52 
0.2675766785274985 1:97 2:51 
0.266691787685593 1:98 2:50 
0.2677540645364081 1:99 2:49 
0.2667121362652951 1:100 2:48 
0.2673962780480983 1:101 2:47 
0.2670626262702948 1:102 2:46 
0.2662309141847982 1:103 2:45 
0.2681302683460018 1:104 2:44 
0.2662247289474159 1:105 2:43 
0.2676725675541232 1:106 2:42 
0.2662493180970111 1:107 2:41 
0.2675048793228126 1:108 2:40 
0.2667793191396394 1:109 2:39 
0.2668965414597293 1:110 2:38 
0.2680170434096699 1:111 2:37 
0.2660021570501641 1:112 2:36 
0.2677869346807945 1:113 2:35 
0.2669686412822941 1:114 2:34 
0.266735735287505 1:115 2:33 
0.2677313007304697 1:116 2:32 
0.2666699631145688 1:117 2:31 
0.2673478734106074 1:118 2:30 
0.2664350531694157 1:119 2:29 
0.2675075835298227 1:120 2:28 
0.2665798500482399 1:121 2:27 
0.2671112125078147 1:122 2:26 
0.267413270809877 1:123 2:25 
0.2668081405381009 1:124 2:24 
0.2674495594307328 1:125 2:23 
0.2667673243313072 1:126 2:22 
0.2676621826190589 1:127 2:21 
0.2662855297444829 1:128 2:20 
0.2675790854664885 1:129 2:19 
0.266435579899761 1:130 2:18 
0.2678280618424094 1:131 2:17 
0.2664522112404898 1:132 2:16 
0.2669473482237956 1:133 2:15 
0.2677672178937703 1:134 2:14 
0.2664051557684196 1:135 2:13 
0.2675420353353619 1:136 2:12 
0.2664074070787194 1:137 2:11 
0.2677406637393743 1:138 2:10 
0.2673266757263325 1:139 2:9 
0.2662957391794876 1:140 2:8 
0.2677887752463877 1:141 2:7 
0.2667793115042652 1:142 2:6 
0.2670223863753324 1:143 2:5 
0.2688221522501986 1:144 2:4 
0.2616923907143614 1:145 2:3 
0.2828666109210788 1:146 2:2 
0.2227166367546954 1:147 2:1 
0.3862238952400587 1:148 2:0 
0.3868973095467312 1:11 2:96 
0.2217650817541179 1:12 2:95 
0.2836153637189372 1:13 2:94 
0.2614189163646383 1:14 2:93 
0.268614526303908 1:15 2:92 
0.2668666592275766 1:16 2:91 
0.2664443052288953 1:17 2:90 
0.2678521392893194 1:18 2:89 
0.2663269086207606 1:19 2:88 
0.2672667972088189 1:20 2:87 
0.2673515521217388 1:21 2:86 
0.2665637013414179 1:22 2:85 
0.2675388318550384 1:23 2:84 
0.2663610370103565 1:24 2:83 
0.2678275844865471 1:25 2:82 
0.2665104451660639 1:26 2:81 
0.2674804734198078 1:27 2:80 
0.2665489909874403 1:28 2:79 
0.2675764659980712 1:29 2:78 
0.2666969065994645 1:30 2:77 
0.2673483644878898 1:31 2:76 
0.2672459855945929 1:32 2:75 
0.2662015716082325 1:33 2:74 
0.2681134538215926 1:34 2:73 
0.266486486676665 1:35 2:72 
0.2677904624781948 1:36 2:71 
0.2662586277106445 1:37 2:70 
0.2679844024268891 1:38 2:69 
0.2667565521245097 1:39 2:68 
0.2671357999368486 1:40 2:67 
0.2672698309857707 1:41 2:66 
0.2665687107832954 1:42 2:65 
0.2675041314038554 1:43 2:64 
0.2670159133445881 1:44 2:63 
0.2667853448104615 1:45 2:62 
0.2674086771008932 1:46 2:61 
0.2664170163333576 1:47 2:60 
0.2678462815032827 1:48 2:59 
0.2668181048162891 1:49 2:58 
0.2670975810597888 1:50 2:57 
0.2672524355352296 1:51 2:56 
0.2665690939099211 1:52 2:55 
0.2673406294972584 1:53 2:54 
0.2665809683029237 1:54 2:53 
0.2674057574589539 1:55 2:52 
0.2670822826785988 1:56 2:51 
0.2668499044404457 1:57 2:50 
0.2673392352669489 1:58 2:49 
0.2666250290124928 1:59 2:48 
0.2675663576760998 1:60 2:47 
0.2667228953877995 1:61 2:46 
0.2675704751603072 1:62 2:45 
0.2670706346553504 1:63 2:44 
0.2664850798195699 1:64 2:43 
0.268199871168849 1:65 2:42 
0.2659003078819146 1:66 2:41 
0.2679660489632524 1:67 2:40 
0.2659404193823871 1:68 2:39 
0.2681346070668075 1:69 2:38 
0.2666562151995356 1:70 2:37 
0.2671471583463627 1:71 2:36 
0.2672201683235907 1:72 2:35 
0.2664553505652534 1:73 2:34 
0.2675735298035728 1:74 2:33 
0.2667038556373946 1:75 2:32 
0.2676999487431067 1:76 2:31 
0.2663813842411442 1:77 2:30 
0.2676889089496473 1:78 2:29 
0.2670906987817604 1:79 2:28 
0.2664652464557321 1:80 2:27 
0.2680542228723956 1:81 2:26 
0.2660685404974425 1:82 2:25 
0.2677306655305196 1:83 2:24 
0.2663640898999499 1:84 2:23 
0.2675563916910174 1:85 2:22 
0.2676427892506919 1:86 2:21 
0.2662195486002642 1:87 2:20 
0.2677072632956419 1:88 2:19 
0.2661107091787366 1:89 2:18 
0.2681176788863764 1:90 2:17 
0.2663539861160507 1:91 2:16 
0.2677846707074578 1:92 2:15 
0.2670639314259163 1:93 2:14 
0.2668729715460733 1:94 2:13 
0.2674900127451992 1:95 2:12 
0.2667206598935785 1:96 2:11 
0.2676911987586852 1:97 2:10 
0.2666664795383355 1:98 2:9 
0.26754049343237 1:99 2:8 
0.2660201753756106 1:100 2:7 
0.2684752664279996 1:101 2:6 
0.2652724681610768 1:102 2:5 
0.2701730955044508 1:103 2:4 
0.2603596331421176 1:104 2:3 
0.2842735486157602 1:105 2:2 
0.2216104487175863 1:106 2:1 
0.3870632195183999 1:107 2:0 
0.3863511865634181 1:-2 2:71 
0.2220850828564801 1:-1 2:70 
0.2834048166599425 1:0 2:69 
0.2609002678857201 1:1 2:68 
0.269832106290792 1:2 2:67 
0.2658247304762574 1:3 2:66 
0.2681245513672483 1:4 2:65 
0.2663526020025316 1:5 2:64 
0.2678449456553768 1:6 2:63 
0.2666638484329638 1:7 2:62 
0.2676271508545072 1:8 2:61 
0.2662756591431729 1:9 2:60 
0.2674529476081685 1:10 2:59 
0.2667396471597538 1:11 2:58 
0.2664562857634411 1:12 2:57 
0.2680848673154577 1:13 2:56 
0.2660214239868284 1:14 2:55 
0.2677274285906521 1:15 2:54 
0.2662867594459727 1:16 2:53 
0.267495858830273 1:17 2:52 
0.2667694630469544 1:18 2:51 
0.2666848168503765 1:19 2:50 
0.2673045138387414 1:20 2:49 
0.2668874754395676 1:21 2:48 
0.2674564188933657 1:22 2:47 
0.2664342363776713 1:23 2:46 
0.2674379173172761 1:24 2:45 
0.2667842579848757 1:25 2:44 
0.2669012339488051 1:26 2:43 
0.2672750405674352 1:27 2:42 
0.2667561136485935 1:28 2:41 
0.2671199848097461 1:29 2:40 
0.1634164056234839 1:30 2:39 
0.2067037266974318 1:31 2:38 
0.1917821331795668 1:32 2:37 
0.1962788663291142 1:33 2:36 
0.1951987162055348 1:34 2:35 
0.1950497526052233 1:35 2:34 
0.1948852509199306 1:36 2:33 
0.1959735689662364 1:37 2:32 
0.1944394288158744 1:38 2:31 
0.1961693292325955 1:39 2:30 
0.1946805083746573 1:40 2:29 
0.1958497015814325 1:41 2:28 
0.1953103902852273 1:42 2:27 
0.1946430094279513 1:43 2:26 
0.1963055989767685 1:44 2:25 
0.1942344516019473 1:45 2:24 
0.1962451271160245 1:46 2:23 
0.1941214263954443 1:47 2:22 
0.1962328085850145 1:48 2:21 
0.1947161399381327 1:49 2:20 
0.1945164180984572 1:50 2:19 
0.1964919114198038 1:51 2:18 
0.1942109505895082 1:52 2:17 
0.1966274290737522 1:53 2:16 
0.1941229839057474 1:54 2:15 
0.1965456629602611 1:55 2:14 
0.194563344683488 1:56 2:13 
0.195069789052812 1:57 2:12 
0.195989669755915 1:58 2:11 
0.1940842854792809 1:59 2:10 
0.1961090000871381 1:60 2:9 
0.1941788934376133 1:61 2:8 
0.1961901207130044 1:62 2:7 
0.1951747446776509 1:63 2:6 
0.1934795315675303 1:64 2:5 
0.200078712052125 1:65 2:4 
0.1837672211197823 1:66 2:3 
0.2253177018875799 1:67 2:2 
0.1170445641243332 1:68 2:1 
0.3872008903040586 1:69 2:0 
0.3861848180774954 1:-41 2:71 
0.2225478335483516 1:-40 2:70 
0.2833479532651409 1:-39 2:69 
0.2613847523393341 1:-38 2:68 
0.2687503227507372 1:-37 2:67 
0.2662977317113323 1:-36 2:66 
0.2678849666603178 1:-35 2:65 
0.2662302894441327 1:-34 2:64 
0.2677201672700178 1:-33 2:63 
0.2666790034113428 1:-32 2:62 
0.2675848578830956 1:-31 2:61 
0.2665327994711696 1:-30 2:60 
0.2675001843792932 1:-29 2:59 
0.2671773378962621 1:-28 2:58 
0.2664185836882762 1:-27 2:57 
0.2677887122703552 1:-26 2:56 
0.2664705781126655 1:-25 2:55 
0.267528257223852 1:-24 2:54 
0.2663759642478435 1:-23 2:53 
0.2673864562831257 1:-22 2:52 
0.2665398407697936 1:-21 2:51 
0.2673840702233997 1:-20 2:50 
0.2666941335535433 1:-19 2:49 
0.2671895840275267 1:-18 2:48 
0.2673219656088029 1:-17 2:47 
0.2663203523075786 1:-16 2:46 
0.2679666586275005 1:-15 2:45 
0.2661916233250085 1:-14 2:44 
0.2674870599555152 1:-13 2:43 
0.2665338888013485 1:-12 2:42 
0.2680003634203103 1:-11 2:41 
0.2663268945870992 1:-10 2:40 
0.2669687525031081 1:-9 2:39 
0.2674196631538129 1:-8 2:38 
0.2666006625196111 1:-7 2:37 
0.2671866521514414 1:-6 2:36 
0.2672436778378601 1:-5 2:35 
0.266493749439502 1:-4 2:34 
0.2676337099507723 1:-3 2:33 
0.266745390888099 1:-2 2:32 
0.2675411640900779 1:-1 2:31 
0.26652267569976 1:0 2:30 
0.2673792461599233 1:1 2:29 
0.2668756323885624 1:2 2:28 
0.2664891901171338 1:3 2:27 
0.26773600415696 1:4 2:26 
0.26671610155773 1:5 2:25 
0.2677837210576492 1:6 2:24 
0.2662685696789372 1:7 2:23 
0.2677602337923016 1:8 2:22 
0.2672847450463336 1:9 2:21 
0.266927611490452 1:10 2:20 
0.2673176919734727 1:11 2:19 
0.2665503708493105 1:12 2:18 
0.2671752409785099 1:13 2:17 
0.267407735252304 1:14 2:16 
0.2667089657135032 1:15 2:15 
0.2675204689197125 1:16 2:14 
0.2662587366492825 1:17 2:13 
0.2676994084962018 1:18 2:12 
0.2664451800843949 1:19 2:11 
0.2674213262093033 1:20 2:10 
0.2666798458143499 1:21 2:9 
0.2671192611985908 1:22 2:8 
0.2674154510384087 1:23 2:7 
0.267032682881962 1:24 2:6 
0.2668698569907575 1:25 2:5 
0.2687361548541579 1:26 2:4 
0.2614007956150253 1:27 2:3 
0.2830689793195795 1:28 2:2 
0.2229459675620904 1:29 2:1 
0.3857925749702522 1:30 2:0 
-1 1:-74 2:-48 
-0.2498737037197151 1:-46 2:0 
-1 1:-85 2:39 
-0.8201930335574587 1:-84 2:38 
-0.8759069610218851 1:-83 2:37 
-0.8553477321744251 1:-82 2:36 
-0.8636300289122227 1:-81 2:35 
-0.859655804902564 1:-80 2:34 
-0.8620628330735178 1:-79 2:33 
-0.8606456710570124 1:-78 2:32 
-0.8618374285796594 1:-77 2:31 
-0.8603712078968219 1:-76 2:30 
-0.8615134058548406 1:-75 2:29 
-0.8610180507249012 1:-74 2:28 
-0.8612654260974804 1:-73 2:27 
-0.8617087771054425 1:-72 2:26 
-0.8607245819760906 1:-71 2:25 
-0.8619309366471091 1:-70 2:24 
-0.8602712300438446 1:-69 2:23 
-0.86161410355634 1:-68 2:22 
-0.8609559093116632 1:-67 2:21 
-0.8608001602653792 1:-66 2:20 
-0.8619539481438583 1:-65 2:19 
-0.8605517436624817 1:-64 2:18 
-0.8620660887820462 1:-63 2:17 
-0.8601100556442278 1:-62 2:16 
-0.8620995157689334 1:-61 2:15 
-0.8607902719789784 1:-60 2:14 
-0.8613091352531081 1:-59 2:13 
-0.8613292019307247 1:-58 2:12 
-0.8609204641995211 1:-57 2:11 
-0.8614462628468795 1:-56 2:10 
-0.8606391798369222 1:-55 2:9 
-0.8614760356757458 1:-54 2:8 
-0.860827923207845 1:-53 2:7 
-0.8619198752212847 1:-52 2:6 
-0.8591384791025012 1:-51 2:5 
-0.8678805850364409 1:-50 2:4 
-0.8422626515348957 1:-49 2:3 
-0.9138348737598552 1:-48 2:2 
-0.7164888706161826 1:-47 2:1 
-0.996034890153402 1:-46 2:0 
-1 1:-13 2:-33 
-1 1:-97 2:89 
-0.8209759847674837 1:-96 2:88 
-0.8753135368244147 1:-95 2:87 
-0.8565409919448879 1:-94 2:86 
-0.8626736174293148 1:-93 2:85 
-0.8608541806297182 1:-92 2:84 
-0.8607241461449744 1:-91 2:83 
-0.8615807934373311 1:-90 2:82 
-0.8604995173255416 1:-89 2:81 
-0.8621335905665463 1:-88 2:80 
-0.8604052940107442 1:-87 2:79 
-0.8620383502187742 1:-86 2:78 
-0.8608260451505991 1:-85 2:77 
-0.8609930410365408 1:-84 2:76 
-0.01749888449672429 1:-10 2:2 
-0.2466517225114656 1:-8 2:0 
-0.861496801157028 1:-83 2:75 
-0.8604885277264276 1:-82 2:74 
-0.8616241470883118 1:-81 2:73 
-0.8605184723954098 1:-80 2:72 
-0.861456602890763 1:-79 2:71 
-0.8610733622901967 1:-78 2:70 
-0.8606048479080319 1:-77 2:69 
-0.8618065116834771 1:-76 2:68 
-0.8609348852219346 1:-75 2:67 
-0.8613067062617155 1:-74 2:66 
-0.8611621583973161 1:-73 2:65 
-0.8612134604134976 1:-72 2:64 
-0.8614742590241229 1:-71 2:63 
-0.8608985115274889 1:-70 2:62 
-0.8617722079724673 1:-69 2:61 
-0.8607537669856068 1:-68 2:60 
-0.8613155329415436 1:-67 2:59 
-0.8611883154463349 1:-66 2:58 
-0.861342199130322 1:-65 2:57 
-0.8614179460979583 1:-64 2:56 
-0.8607989622505167 1:-63 2:55 
-0.8620100259412256 1:-62 2:54 
-0.8601085486183777 1:-61 2:53 
-0.862199796419631 1:-60 2:52 
-0.8606774714834511 1:-59 2:51 
-0.8615636636631931 1:-58 2:50 
-0.8611956170361421 1:-57 2:49 
-0.8607667100712351 1:-56 2:48 
-0.8616249981351922 1:-55 2:47 
-0.8604756149946264 1:-54 2:46 
-0.8619942106925886 1:-53 2:45 
-0.8604768236926863 1:-52 2:44 
-0.8614660493737991 1:-51 2:43 
-0.8611333276967486 1:-50 2:42 
-0.8609285328982272 1:-49 2:41 
-0.8614519199169732 1:-48 2:40 
-0.8606133537366036 1:-47 2:39 
-0.8620052519078383 1:-46 2:38 
-0.8607690395849006 1:-45 2:37 
-0.8615654054810646 1:-44 2:36 
-0.8611181772965735 1:-43 2:35 
-0.8606228691030214 1:-42 2:34 
-0.8616502359968538 1:-41 2:33 
-0.860430567985097 1:-40 2:32 
-0.8617232215280335 1:-39 2:31 
-0.8603431327742803 1:-38 2:30 
-0.8615617808613877 1:-37 2:29 
-0.8609393522324138 1:-36 2:28 
-0.8607544093345365 1:-35 2:27 
-0.8616282051038899 1:-34 2:26 
-0.8609408348191974 1:-33 2:25 
-0.8614975442316231 1:-32 2:24 
-0.8611988184720537 1:-31 2:23 
-0.8608579864093426 1:-30 2:22 
-0.861857530292669 1:-29 2:21 
-0.8606769430569038 1:-28 2:20 
-0.8616154678722457 1:-27 2:19 
-0.8604114217383556 1:-26 2:18 
-0.8616002593902279 1:-25 2:17 
-0.8607528587517059 1:-24 2:16 
-0.861347846902071 1:-23 2:15 
-0.861442029487001 1:-22 2:14 
-0.8607811608197252 1:-21 2:13 
-0.8619809578469357 1:-20 2:12 
-0.8606448690987951 1:-19 2:11 
-0.8618780531504279 1:-18 2:10 
-0.8608034487142713 1:-17 2:9 
-0.861370785573557 1:-16 2:8 
-0.8610029507249802 1:-15 2:7 
-0.8616183476744754 1:-14 2:6 
-0.858953466317782 1:-13 2:5 
-0.8676501513178353 1:-12 2:4 
-0.8424529190391444 1:-11 2:3 
-0.8965755220960875 1:-10 2:2 
-0.7161395293890847 1:-9 2:1 
-1 1:-8 2:0 
