svm_type c_svc
kernel_type linear
nr_class 2
total_sv 7
rho 0.99996
label 1 -1
nr_sv 5 2
SV
0.01652012472002435 1:12 2:-75 3:65 
0.1861375739917501 1:-69 2:70 3:1 
0.1508079950063603 1:-68 2:71 3:-1 
0.5186577997157341 1:87 2:-86 3:1 
0.6278306118881394 1:88 2:-85 3:-1 
-0.3126675617151363 1:-63 2:63 3:0 
-1.187286543606872 1:81 2:-81 3:0 
