svm_type c_svc
kernel_type linear
nr_class 2
total_sv 25
rho -0.99991
label 1 -1
nr_sv 6 19
SV
1.205592400812211 1:9 2:-93 3:84 
0.04266737154671476 1:-38 2:77 3:-39 
0.0007829114100539401 1:70 2:8 3:-78 
4.349283670864818 1:-48 2:16 3:32 
0.0009543888581764141 1:-3 2:59 3:-56 
0.4 1:26 2:-25 3:-1 
-0.0007107468667157102 1:94 2:-95 3:0 
-0.0008692553260335521 1:74 2:-77 3:2 
-0.008248188742336987 1:-23 2:22 3:0 
-4.478861736191981e-05 1:-56 2:55 3:0 
-0.008960852396392136 1:71 2:-72 3:0 
-0.0005470763642434594 1:96 2:-97 3:0 
-0.00151817397227639 1:21 2:-22 3:0 
-0.06150064353458942 1:3 2:-88 3:84 
-0.9635895419908186 1:4 2:-87 3:82 
-0.1034212336301383 1:5 2:-86 3:80 
-0.02092973167668332 1:6 2:-85 3:78 
-0.02259359600837467 1:72 2:-73 3:0 
-0.001730542854864325 1:59 2:-60 3:0 
-0.004466386077873649 1:-45 2:44 3:0 
-4.349283670864818 1:-48 2:15 3:32 
-0.008538345545559968 1:74 2:-75 3:0 
-0.0405825988537488 1:14 2:-89 3:74 
-0.00174537016914666 1:7 2:-8 3:0 
-0.4 1:24 2:-25 3:0 
