svm_type c_svc
kernel_type linear
nr_class 2
total_sv 4
rho 0.305941
label 1 -1
nr_sv 3 1
SV
0.007109122231151413 1:-54 2:88 3:-26 
0.002917083476859592 1:-22 2:-54 3:99 
0.003227428699333507 1:86 2:-61 3:-9 
-0.01325363440734451 1:-20 2:13 3:-1 
